1.57393862478	1.74118292306
1.35624423005	-1.46316832265
0.135463450662	-2.54434719179
1.7731211701	-1.6233450448
-0.578276256047	-2.7293239123
1.26143960351	-2.34472923666
0.226728838023	-0.579964664177
-0.202001684355	0.322062571513
1.48503631006	1.15023831446
2.59728105501	3.55441854164
1.04870626227	0.716737711428
2.04326338892	1.65895961889
0.0940119020697	-0.622797267668
1.06999892918	-0.770547671016
0.867059161028	2.22510371556
-0.702441207182	1.52468746328
-0.660518624556	1.6987276886
0.143921081168	-1.09426916608
2.41064993442	-2.10012556843
2.64904801141	-1.29459556339
5.80059590575	2.99366106362
-5.24897730729	-2.60691182826
3.51378327594	4.00202486283
-6.57540735046	-3.2672466536
2.0398875068	1.38458501896
1.51833188292	0.244173056663
1.42676124697	0.513697433216
1.48217139744	0.266885170779
6.16420224014	3.25347348165
-3.73242856102	-3.51274581228
-4.73609721123
-4.03166543638
-0.418168611316
-5.4208661963
0.0840702436941
0.675206223663
-0.23834218558
-0.247105653129
-4.1704564241
0.0113549762935
-1.45837494076
